[CLS] 0.054241393 -0.039294176 0.057014875 -0.043373965 -0.019640328 -0.035972744 -0.049690783 -0.03553613 0.05832993 0.023539826 0.78884405 -0.004635214 0.03382923 -0.025266333 -0.02207569 -0.036695026 0.04072939 0.108662456 -0.0055471533 -0.013137875 0.03433608 0.019850757 0.04232018 0.11608602 -0.018268479 0.04020096 0.06539507 -0.03141383 0.11312362 0.056393377 0.055293288 -0.044433996 -0.10421629 -0.01388131 -0.12021503 0.042547286 -0.015458807 -0.034761515 0.052356564 -0.08593015 -0.045955908 0.044681374 -0.04029559 0.018314289 -0.024166096 0.21385378 0.0113827735 0.084858984 0.0077206083 0.06893294 0.03202354 0.007688293 0.07909847 -0.05044436 0.024233466 0.04343411 0.04598618 0.032969274 0.039840672 -0.04178303 -0.071445614 0.073639534 0.047625873 -0.10482161 0.030460661 -0.040656444 -0.036961988 -0.025229225 -0.032346383 -0.023665687 0.021274699 -0.025343774 -0.02831755 -0.035143927 0.005692074 0.030947441 -0.020034324 0.00783854 6.2305467e-06 0.062041625 -0.041884147 0.12056024 -0.07057437 0.04290855 0.05134658 0.056822866 -0.025488049 -0.046736628 0.06012212 -0.019917771 0.031936307 0.11216346 -0.032601446 0.051198386 -0.042640228 0.034380786 -0.31429607 -0.14963345 -0.04626555 0.030467551 0.08121034 0.009150979 0.029521065 0.0146022905 -0.04010888 -0.21869755 -0.03396988 0.15178056 0.11398543 -0.04462358 0.027968945 0.039507505 -0.03834707 0.090518914 0.049780913 -0.017597452 -0.034706555 -0.03702695 -0.02183476 -0.010635249 0.036894523 0.051787015 -0.34629235 0.03655289 0.044668216 -0.020532921 -0.042921882 -0.049099993 -0.04094193 -0.021624751 0.05952686 0.19471958 0.059635255 -0.035646167 0.052702907 0.028599115 -0.07146313 -0.07643839 -0.04472385 0.07562971 0.04343339 0.049392566 -0.010598368 -0.09163138 -0.041234694 -0.12185169 -0.03884137 0.06559072 -0.07317405 -0.018092008 -0.046095748 -0.20943546 -0.015211049 0.017211048 -0.060928456 -0.08925467 0.07182513 -0.016084012 0.023776133 0.03957808 0.07752353 -0.06828877 -0.13006277 0.020743122 0.04842091 0.021120373 0.0025935897 -0.033692036 0.041383293 -0.030365596 -0.02036702 0.104163684 -0.006923785 -0.057071425 -0.050292056 0.06552477 0.0419615 -0.3115716 -0.03710092 0.03127685 -0.08050928 -0.051965915 -0.10978944 0.026189134 -0.038780537 -0.007939492 -0.020079058 0.011009365 -0.080637775 -0.024552416 -0.05161257 0.08248775 0.04899593 -0.04472956 -0.06754023 0.090028875 -0.025247823 -0.009290717 0.08759953 -0.034213718 -0.04491499 0.04083091 -0.033304483 0.010086015 -0.11860131 -0.040163442 -0.061210655 -0.05887362 0.02520947 -0.043754462 -0.066090725 -0.036902864 0.037620533 0.04007235 0.041680627 -0.035766933 0.014420546 0.060309697 0.011504012 0.017611684 0.012670241 0.036168292 -0.021949602 -0.03645183 0.046331327 -0.06038402 -0.088115424 -0.042675864 0.05403859 -0.040262733 0.06300372 0.028748784 -0.040926915 -0.06640468 -0.06002327 -0.061375204 0.034669813 0.060506493 -0.024515102 0.04536853 -0.033282384 -0.03705959 0.017580623 0.059001923 -0.032836575 0.03980353 -0.040563624 -0.030540148 -0.04697987 -0.06912383 -0.055949546 -0.065726936 0.047649972 0.055679977 -0.10856905 -0.06735627
[SEP] 0.018689042 0.013012265 0.036030903 -0.0066610533 -0.051140394 -0.034067597 -0.07057239 -0.016791722 0.015816111 0.013125368 0.6665032 0.00052834436 0.031993967 -0.0020608942 -0.018512608 -0.054055568 -0.07426742 0.04141262 -0.012922658 -0.008052764 0.027971901 0.015889887 0.0055425866 0.036858585 -0.021392774 0.0013011418 0.038319614 -0.03080827 0.13419522 0.006354732 0.00076655054 -0.027608827 0.0047144676 -0.023340307 -0.13926703 0.009721559 -0.017769046 -0.023769448 0.003542845 -0.008047487 -0.03986316 0.023334857 8.2913575e-06 -0.013106941 -0.040877946 0.11471428 0.015090692 0.011065497 0.00414154 0.026296625 0.014937654 0.019817185 0.018980488 -0.011999681 0.008564589 0.03626704 0.030919239 0.0014714649 0.019898377 -0.018994538 -0.059827246 0.0071350248 0.024517639 -0.07610737 0.00720308 -0.031280678 -0.032721024 -0.020857897 -0.024406478 -0.015670426 0.0019112568 -0.030653082 0.0021817237 -0.020414012 0.0031509497 0.02109981 -0.0046042395 0.020823553 0.008543852 0.015258533 -0.043769997 0.04389938 0.01742482 -0.013586808 0.03559028 0.03604844 -0.038740702 -0.037014212 -0.05160746 -0.025745852 0.032874394 0.09400342 -0.04955177 0.018221894 -0.033630446 0.030450677 -0.28503913 -0.122596554 0.03889606 -0.012663389 0.032892544 0.002494036 0.009618326 -0.008266288 -0.027585976 -0.22933942 -0.0109639 0.31283557 0.04095514 -0.042652894 -0.0022113728 0.018835591 -0.024580317 0.06724987 0.020938255 0.0064683603 0.0064063794 -0.042657807 -0.027932076 0.009303821 0.0002134457 0.0363333 -0.2969562 0.010457922 0.016034493 -0.003386744 0.005596011 -0.060595527 0.02419305 0.017915089 -0.015360766 0.17710572 0.015986914 -0.021612478 0.0056340504 0.011554937 -0.08888902 -0.04471649 0.07770155 0.043911293 0.0725217 0.014410471 -0.030514864 -0.010716681 -0.052685883 0.0066369902 0.028714566 0.04540666 0.008539912 -0.004253896 -0.025596265 -0.10032903 0.00033443337 0.006111594 -0.020042652 0.076793134 0.07667172 -0.0041466528 0.021977358 0.022453511 0.006809235 -0.03159275 -0.08831363 0.0014582732 0.014714578 0.0009906165 -0.0071073044 -0.01181599 0.023301506 -0.015944565 0.012820307 -0.023329072 0.010516928 -0.0017466678 0.028644603 0.07135591 0.016865535 -0.2007423 -0.031634826 -0.015491122 -0.037334725 -0.031698205 -0.07689084 0.027241224 0.007753624 -0.011705178 -0.02852181 0.012887472 0.016072998 -0.025092576 -0.032935318 0.011930642 0.0072214887 -0.024963915 0.010102011 0.089675784 -0.052832317 -0.023035388 0.024775282 -0.018472252 -0.0002834864 0.0059851464 -0.021609074 0.031511623 -0.015703347 -0.03184211 0.013791098 0.00051511655 0.0011127541 -0.039873224 -0.017743453 0.0034739152 0.011020004 0.0067618866 -0.013038341 -0.04788386 -0.0070903054 -0.0022666787 -0.023383297 -0.0024141253 0.014024944 0.0028282383 -0.039992586 -0.025138734 0.037394743 -0.041485872 -0.086311854 -0.03959025 0.018271154 -0.035404287 0.011194983 0.010374042 0.006079598 -0.06906912 -0.0663923 0.01673899 0.02155174 0.06797984 -0.026526334 -0.0060351603 0.014022415 -0.061403286 -0.0013859916 0.041056417 -0.012258922 0.0030815674 -0.0064898427 0.01396214 -0.025601858 -0.018930841 -0.041867316 -0.031276 0.023895662 -0.014607443 0.1235094 0.05809602
[BOS] 0.03106069 -0.028426794 0.07374579 -0.05064947 -0.036375113 -0.02870665 -0.037628893 -0.019106902 0.052615784 0.031351507 0.7941586 -0.013098496 0.022864291 -0.041491624 -0.008850329 -0.04563671 0.052546393 0.09201485 -0.018176353 -0.01487366 0.037957545 0.027067121 0.026580388 0.16188486 -0.012854636 0.034940246 0.034034062 -0.055722997 0.11659265 0.062427696 0.037566643 -0.025476158 -0.107981846 -0.017833864 -0.15795209 0.03118101 -0.024388338 -0.024496622 0.01415686 -0.08683315 -0.031970527 0.010157034 -0.03621979 0.014985104 -0.044340767 0.20631163 0.01749931 0.061900962 0.018087115 0.072304465 0.044540957 0.036734518 0.052732628 -0.0054939836 0.027793968 0.047858294 0.061409574 0.03495458 0.03488779 -0.035940345 -0.109626 0.06667414 0.03539995 -0.07246735 0.033852026 -0.038818218 -0.046308056 -0.0047479225 -0.04776463 -0.027904144 0.027105259 -0.028870868 -0.011910571 -0.06210461 0.029361643 0.038419753 0.0044848383 0.022791514 -0.0016798591 0.07914463 -0.04645 0.13194464 -0.045048967 0.025438486 0.04424722 0.009046687 -0.041558668 -0.045398694 0.05303062 -0.013690656 0.038996514 0.092119016 -0.038654078 0.02870018 -0.009186609 0.0627616 -0.28426364 -0.16082573 -0.05000991 0.06483698 0.109123506 0.017883174 0.039754078 0.034459624 -0.024189275 -0.26640075 -0.0034372415 0.21396652 0.107695214 -0.066587865 0.01900189 0.026027005 -0.0530811 0.090161264 0.038995467 -0.028198555 -0.05655789 -0.034453418 -0.024004519 -0.01832453 0.061019383 0.024597326 -0.31071848 0.056753997 0.07093123 -0.038685896 -0.034534346 -0.054882955 -0.059238028 -0.018059077 0.03081253 0.20099117 0.03208784 -0.056441523 0.034510035 0.035135467 -0.1027818 -0.041588254 -0.048632026 0.09373764 0.07747539 0.03388493 0.009052059 -0.10623635 -0.03714365 -0.112917766 -0.031393573 0.07136062 -0.035494674 0.016603416 -0.0699033 -0.19789706 -0.022705805 0.0511039 -0.056831323 -0.09555283 0.06933647 -0.01732339 0.034486357 0.05878577 0.0824961 -0.056743585 -0.123972006 0.015847918 0.032403193 0.02080657 -0.013082774 -0.026695859 0.023858227 -0.026266467 -0.020909235 0.08531339 -0.03232889 -0.05775809 -0.06288297 0.050191317 0.0024595873 -0.28686526 -0.034453686 0.03930679 -0.10843523 -0.043349203 -0.1401033 0.048026588 -0.04585192 -0.027529141 -0.040694043 0.048228763 -0.07272733 -0.011649534 -0.043985154 0.09031748 0.02408166 -0.044223778 -0.060141347 0.10740799 -0.036405627 -0.060402434 0.09277638 -0.043981954 -0.021983331 0.02256807 -0.0392912 0.027848998 -0.10459312 -0.044227246 -0.029021585 -0.027292814 0.027819451 -0.0187776 -0.07937534 -0.009211056 0.027243132 -0.008295218 0.039650403 -0.03666061 0.05440306 0.051676605 -0.00626166 0.052124567 0.042975716 0.047469508 -0.058337238 -0.034858573 0.028225752 -0.041189786 -0.1058237 -0.01046209 0.029593829 -0.053261574 0.03312387 0.021480609 -0.03914449 -0.068737306 -0.02854626 -0.059186082 0.032958116 0.04811768 -0.040273253 0.027112653 -0.004877178 -0.029361282 -0.0033933988 0.053182032 -0.021314938 0.028844679 -0.022756057 -0.016421286 -0.01955625 -0.027457628 -0.058122158 -0.07942573 0.073792644 0.041520875 -0.14495873 -0.073011205
[MASK] 0.04108014 -0.04574386 0.030784063 -0.06080109 -0.039224736 -0.04843665 -0.036197115 -0.039686818 0.03349572 0.00958408 0.8076622 -0.0049737003 0.05291691 -0.0361349 -0.023793036 -0.046340518 0.053475525 0.087502114 -0.024500296 -0.0024657184 0.052178856 0.042833433 0.014183761 0.17274812 -0.028025553 0.029726982 0.031873614 -0.03998532 0.15653907 0.06006474 0.028677247 -0.044031687 -0.112343036 -0.006357154 -0.11081748 0.025113879 -0.025272112 -0.019685667 0.028685223 -0.074882224 -0.046070773 0.02003545 -0.039223537 0.04626872 -0.03498108 0.21968678 0.025827685 0.060381915 0.040444713 0.052384876 0.011050992 0.014933341 0.07764731 -0.025822002 0.02930026 0.051403318 0.06140112 0.03843565 0.016665777 -0.016232438 -0.104580134 0.061428275 0.04049275 -0.073564515 0.028060135 -0.01751265 -0.026147814 -0.031659707 -0.049191494 -0.042141687 0.036071274 -0.017990245 -0.037449785 -0.054269247 0.026464943 0.025180394 -0.037473097 0.0433422 0.028210323 0.08798569 -0.044993885 0.118252054 -0.058895096 0.06091474 0.044109512 0.058399 -0.028632725 -0.048099726 0.04902056 -0.016338926 0.036964662 0.10359027 -0.056200586 0.023173997 -0.03528458 0.0711662 -0.341915 -0.15181606 -0.038455784 0.021626547 0.09656905 0.03954459 0.026965491 0.02524287 -0.036937878 -0.24265872 -0.06282076 0.1728403 0.10562395 -0.037804924 0.033552915 0.05553214 -0.067857265 0.08554371 0.02669284 -0.04226875 -0.035712168 -0.0559585 -0.034246955 -0.006669604 0.029475138 0.018099612 -0.3364228 0.016343188 0.035310175 -0.027499512 -0.029811218 -0.04366398 -0.034874465 -0.020769699 0.068949185 0.19236508 0.049909644 -0.07817144 0.03563341 0.013574161 -0.07777648 -0.070605814 -0.058063716 0.060108405 0.06245604 0.051233355 0.017965356 -0.10384687 -0.032737125 -0.110628575 -0.044567827 0.049490646 -0.03475639 -0.020632017 -0.053833596 -0.22047392 -0.018072918 0.044491414 -0.045979604 -0.08054978 0.06417865 -0.027183207 0.04771408 0.031746387 0.08267744 -0.044150215 -0.13365228 0.033896144 0.026036037 0.011562283 0.0023503255 -0.031730905 0.04401859 -0.024494084 -0.028636852 0.044625472 -0.039175145 -0.06073876 -0.036256578 0.07883187 0.015285875 -0.31424683 -0.035198838 0.045456 -0.11173669 -0.027939264 -0.12876771 0.035800334 -0.039143708 -0.008919207 -0.03564994 0.021068312 -0.05886124 -0.027933273 -0.031871222 0.11542125 0.03104835 -0.0113222385 -0.044639885 0.10922878 -0.028646998 -0.043813106 0.06413671 -0.03773356 -0.021335252 0.04242701 -0.008468631 0.029053207 -0.13282163 -0.033174608 -0.029993277 -0.034787435 0.024694791 -0.049670607 -0.06561591 -0.05178744 0.048470527 0.053578023 0.04795806 -0.03179494 0.03345038 0.04533512 0.010653718 0.043834154 0.023773726 0.04125125 -0.047237013 -0.042202413 0.03614222 -0.056191374 -0.08366388 -0.031258162 0.040349234 -0.034604277 0.056209482 0.023314014 -0.055022713 -0.04264646 -0.07140406 -0.052888405 0.031748313 0.08455244 -0.024722597 0.031145386 -0.039044693 -0.055762876 -0.005685202 0.08040844 -0.024805376 0.042871404 -0.03953326 -0.021219717 -0.005862218 -0.051791925 -0.06825652 -0.06286025 0.06959698 0.027898476 -0.115032 -0.05799133
[PAD] 0.048967667 -0.050479412 0.051137228 -0.047595143 -0.020173475 -0.06809638 -0.038434956 -0.003452159 0.03130799 0.031398885 0.81665415 0.013887575 0.046499297 -0.011064338 -0.025492592 -0.034458928 0.037895914 0.09391665 -0.014786613 -0.041628864 0.036983002 0.018530227 0.043813564 0.16618195 -0.011440555 0.04488278 0.055764593 -0.02387153 0.11999714 0.09632831 0.032491934 -0.046866387 -0.10118689 -0.0017952215 -0.15333307 0.0017385171 -0.035663843 -0.012698826 0.05157311 -0.08544129 -0.028586384 0.019277755 -0.035348102 0.012444848 -0.017652614 0.21290322 0.02917126 0.07286075 0.030712182 0.073891796 0.021043798 0.030439988 0.076843664 -0.017404577 0.03084204 0.032962576 0.05205482 0.021849494 0.03253578 -0.06255708 -0.089615256 0.07079293 0.032991994 -0.07866078 0.04380005 -0.048621815 -0.037636995 -0.032193825 -0.034359172 -0.0037775256 0.018173348 -0.009171723 -0.004969867 -0.021895284 0.049668252 0.0379776 -0.0535151 0.04767057 0.035789 0.069286615 -0.051750813 0.12980002 -0.06861874 0.03377946 0.040336456 0.05159235 -0.0413548 -0.06061153 0.05284562 -0.04976154 0.022838863 0.089506954 -0.03538195 0.016400576 -0.047716912 0.02554531 -0.31954348 -0.15829273 -0.036802266 0.025889693 0.0686376 0.044736277 0.039416976 0.038621504 -0.039374504 -0.19727719 -0.028661426 0.18673581 0.10450996 -0.052502695 0.024989652 0.041365772 -0.039100956 0.0776012 0.0075376295 -0.04051388 -0.008893398 -0.02209974 -0.01092962 0.0076237423 0.015807012 0.026717706 -0.32610667 0.023230895 0.05148762 -0.023306921 -0.044054184 -0.06302149 -0.02925014 -0.029858308 0.07611099 0.19834265 0.08754554 -0.07073574 0.036847055 0.033308536 -0.080935985 -0.05976384 -0.048965782 0.0841883 0.073100485 0.054459605 0.005285328 -0.06247713 -0.011811196 -0.10889385 -0.013174883 0.01816167 -0.018050827 -0.029338099 -0.05440097 -0.21753392 -0.014050887 0.04234827 -0.020449711 -0.083420955 0.06812611 -0.03593711 0.038028374 0.032070763 0.0986001 -0.08109712 -0.14900477 0.040518213 0.06856065 0.042139124 0.015092214 -0.032154445 0.061777405 -0.029143175 -0.049945906 0.07862988 -0.03293793 -0.06463894 -0.023491995 0.03348298 0.030420478 -0.3081139 -0.07017316 0.035285655 -0.12173231 -0.048012123 -0.15487874 0.046472207 -0.039665032 -0.005158109 -0.02561167 0.027218284 -0.067583464 -0.021471592 -0.03230771 0.09366666 0.065294415 -0.029838659 -0.075773165 0.09332951 -0.021254625 -0.0392527 0.078252465 -0.061173897 -0.029636003 0.018196544 -0.01183153 0.022235094 -0.09577466 -0.04887951 -0.05039576 -0.023704547 0.045602445 -0.016257381 -0.059203524 -0.03750788 0.02137028 0.02682249 0.030119844 -0.023024721 -0.00974975 0.07120844 -0.045412283 0.044481516 0.025050681 0.037941873 -0.024640739 -0.0280844 0.007897444 -0.050499752 -0.088501364 -0.02606092 0.020744603 -0.034126572 0.045184568 0.024862664 -0.025747979 -0.057933733 -0.049081545 -0.046863504 0.042586144 0.067443006 -0.013986963 0.025446793 -0.045359906 -0.060197234 -0.0050043897 0.07225181 -0.029767605 0.04422323 -0.030201029 -0.021481514 -0.06699828 -0.063661106 -0.07072605 -0.055183705 0.09801328 0.015179322 -0.12593594 -0.08051766
[RESERVED] 0.008219562 -0.028354544 0.054684 -0.038873553 -0.03748018 -0.029523 -0.07233003 -0.02023795 0.029260201 0.047672685 0.7959551 -0.029699642 0.03864539 -0.030369759 -0.052608278 -0.049188696 0.05431675 0.1138683 -0.0048503634 -0.031172656 0.01128555 0.03282871 0.01873829 0.15054011 -0.0155422175 0.038543135 0.03390917 -0.046027843 0.12397936 0.06528144 0.03840665 -0.039519086 -0.10100097 -0.043334533 -0.1642088 0.033712626 -0.02740322 -0.016289761 0.05338239 -0.089610785 -0.03394273 0.023035709 -0.04127388 0.045696627 -0.026568443 0.20830584 0.033457823 0.059726655 0.028695017 0.06737632 0.04027794 0.03067427 0.05314702 -0.026974022 0.052147143 0.035668164 0.04463272 0.055384513 0.018063132 -0.015178033 -0.09517711 0.07427923 0.033800017 -0.06922353 0.021410732 -0.022618538 -0.04203223 -0.0243483 -0.019829681 -0.03573295 0.024093872 -0.009316434 -0.03634193 -0.067819536 0.027582955 0.029361848 -0.029407633 0.03738973 0.03752044 0.088315405 -0.05096536 0.11213726 -0.05392656 0.07209073 0.07456517 0.04974982 -0.037362162 -0.044317484 0.045594808 -0.030589966 0.026610065 0.10854804 -0.027768902 0.01216806 -0.011476892 0.038595486 -0.30475047 -0.1449837 -0.04829681 0.035920568 0.070896745 0.044748083 0.030960582 0.006244581 -0.013933112 -0.21189496 -0.05165193 0.17936179 0.13538866 -0.0527031 0.05769676 0.025251297 -0.06873599 0.07440297 0.02184671 -0.058409013 -0.010038053 -0.03188104 -0.0073992433 0.018468756 0.054593828 0.031007923 -0.34372696 0.033288985 0.04579969 -0.044597004 -0.0426508 -0.03132227 -0.050376505 -0.028938206 0.064824834 0.18083331 0.062461387 -0.06910502 0.054003827 0.048130948 -0.09276383 -0.053377677 -0.06634334 0.0681119 0.07008916 0.05693266 0.021096673 -0.11033386 -0.05381713 -0.115118735 -0.054742936 0.055455647 -0.044932526 -0.027583733 -0.06200235 -0.19326608 -0.038095985 0.053029742 -0.033475984 -0.059588194 0.082295716 -0.03376662 0.052613374 0.045079846 0.08900904 -0.056622066 -0.13275312 0.02677011 0.018382745 0.014344678 -0.0038180407 -0.030649688 0.03672064 -0.042869147 -0.029491657 0.06131413 -0.009431633 -0.07118582 -0.061020028 0.09617626 0.0025156713 -0.29455402 -0.03843208 0.04178349 -0.12629098 -0.033992082 -0.1471205 0.039809752 -0.029451383 -0.054573923 -0.031412136 0.042020906 -0.099498905 -0.020614559 -0.02839684 0.102406584 0.048451334 -0.042674087 -0.058206677 0.104213774 -0.01745816 -0.03247527 0.11498583 -0.032494374 -0.036322206 0.04863413 -0.034431826 0.045812804 -0.117979206 -0.046811536 -0.023833781 -0.030308507 0.018683458 -0.04496979 -0.0308695 -0.027135877 0.051449515 0.037060205 0.03181153 -0.029931609 0.014518618 0.021879626 -0.030968735 -0.007873817 0.03740377 0.04128388 -0.03216624 -0.026690159 0.043811023 -0.043128572 -0.090670615 -0.026293594 0.026544472 -0.0325634 0.028841943 0.0453899 -0.02459867 -0.07649771 -0.07672858 -0.04733836 0.00700955 0.07210046 -0.0186203 0.017491769 -0.015796203 -0.03127696 -0.020330578 0.064383775 -0.0152367875 0.030419607 -0.033671435 -0.022228139 -0.031680297 -0.04111435 -0.07069568 -0.063032955 0.06594108 0.031624712 -0.07952885 -0.056745276
[UNK] 0.03794026 -0.0360066 0.061032485 -0.02903758 -0.04499438 -0.043183327 -0.089075215 -0.016173415 0.030872134 0.032351002 0.79647 -0.02367397 0.03836424 -0.03355894 -0.018555421 -0.054534964 0.058310393 0.1255538 -0.028381493 -0.035920117 0.036383886 0.011689517 0.024894884 0.17691346 -0.028021527 0.037928022 0.03797041 -0.012907489 0.093335055 0.060864657 0.03610562 -0.024719715 -0.08266666 -0.0050919536 -0.10415009 0.04853815 -0.04833143 -0.043989617 0.038730238 -0.11054107 -0.027756426 0.046303213 -0.039905395 0.03991532 -0.024980508 0.2091817 0.03476134 0.056861985 0.067382134 0.06663682 0.023882989 -0.007256306 0.083827704 -0.034347877 0.025463007 0.030767296 0.058130655 0.042895272 0.020285057 -0.027759127 -0.09666015 0.08661401 0.019525182 -0.09255267 0.03677083 -0.063399285 -0.026862618 -0.013625168 -0.018851489 -0.037968412 0.015106413 -0.019857628 -0.01845247 -0.062009882 0.008042488 0.024418032 -0.020607714 0.02754101 0.006749341 0.087831184 -0.0556621 0.096382454 -0.051448926 0.063003786 0.047881328 0.07305259 -0.04628183 -0.029255068 0.040569577 -0.048753545 0.029348267 0.113593265 -0.04565988 0.037209358 -0.050083265 0.046756804 -0.3228353 -0.15997995 -0.02902707 0.054483 0.08850125 0.05403402 0.046608612 0.046648547 -0.024892038 -0.22504336 -0.040433925 0.19110659 0.13691804 -0.043473296 0.043795004 0.02359377 -0.05669498 0.09837646 0.014475817 -0.039075032 -0.021973183 -0.033028636 -0.025900502 0.027059257 0.032324854 0.029248433 -0.33574265 0.042404335 0.044430476 -0.00044695463 -0.053121295 -0.017069148 -0.0282546 -0.010998127 0.05859816 0.20864141 0.052897803 -0.063250974 0.05193493 0.029902495 -0.08890723 -0.069705255 -0.06004212 0.079876244 0.06237194 0.029100157 -0.00846205 -0.08873008 -0.032692157 -0.08741876 -0.040445182 0.05289344 -0.03707401 -0.031968657 -0.03140563 -0.20817474 -0.018298699 0.022291176 -0.02484919 -0.06366171 0.08352507 -0.023409752 0.045515917 0.040808648 0.084924355 -0.060684983 -0.1237325 0.015246676 0.046490014 0.017737571 -0.013921021 -0.031815525 0.050167866 -0.033602435 -0.02286394 0.091546535 -0.011701217 -0.06242932 -0.04952837 0.08165877 0.015934832 -0.2876191 -0.05008396 0.040747706 -0.09808487 -0.04197852 -0.1521917 0.040235776 -0.059974186 -0.010054647 -0.028845465 0.05205222 -0.086113386 -0.0331888 -0.027721372 0.078080304 0.03361153 -0.030529967 -0.058577526 0.085294686 -0.064620666 -0.043813277 0.0815619 -0.035904527 -0.027911589 0.03452539 -0.055688217 0.047352847 -0.11981842 -0.022460459 -0.022089584 -0.021700684 0.023474935 -0.032315847 -0.043164957 -0.019885574 0.05499585 0.04171894 0.025898997 -0.045163102 0.030189514 0.0443008 -0.024738247 0.03934518 0.031817585 0.020262105 -0.044253595 -0.036797673 0.040460147 -0.02288071 -0.10459284 -0.044315178 0.0337499 -0.04104257 0.021283377 0.023483602 -0.02402218 -0.06919179 -0.058465336 -0.044016007 0.01902096 0.088059105 -0.034518808 0.019165665 -0.018753417 -0.058326375 0.009618607 0.08160089 -0.021343848 0.0008413278 -0.032686137 -0.036041852 -0.042689066 -0.044118125 -0.082277045 -0.063659735 0.06670805 0.01532171 -0.08850288 -0.027398154
A 0.0073222867 0.04110974 0.004189578 0.011940851 0.026532939 -0.00901546 -0.005049874 -0.029622525 -0.009881152 -0.03158761 -0.024381941 0.075850934 -0.016301364 -0.0039654863 0.029338723 0.0107220765 -0.021450361 -0.025333216 -0.01936601 -0.14776495 0.0021771907 0.01477078 -0.00827346 -0.025712669 -0.003057881 -0.005992285 -0.08193989 0.013706561 -0.01134794 -0.009202228 0.004118724 -0.0078119896 0.011119382 -0.0058674533 0.008951353 -0.042097494 -0.009731276 -0.0018516582 0.0069776224 0.0045404336 0.030606793 -0.022723332 0.0032052593 0.0017461479 0.010156589 -0.017123787 0.0158319 -0.020104736 -0.063486174 0.007427882 -0.03229458 0.018219301 -0.0059595173 -0.0013348379 0.006521077 0.0064534927 -0.018547459 -0.0034459347 0.009284609 0.018078681 -0.0043669273 -0.0110779535 -0.0090806885 -0.0062665413 -0.0022586924 0.013460169 -0.0014564906 0.014160402 0.0017853134 0.011754657 -0.0059379614 -0.007379804 0.030629896 0.017568462 -0.019461798 -0.0064777746 -0.00852192 -0.011197847 0.0071466113 -0.01711975 0.03857286 0.0023987067 0.023804037 -0.013338816 -0.007885111 -0.009410197 0.02270368 -0.0016302946 -0.00922792 0.060199223 0.00929088 0.0012383482 0.051978122 -0.020311423 0.0387704 0.0059776306 0.01824738 0.0031448742 0.017724084 -0.021557013 -0.027687287 -0.005474143 0.01591291 -0.026264295 0.0033847874 -0.0017207944 -0.011337518 -0.0061210166 0.006384949 0.03756174 0.010945676 -0.02042017 0.0026207455 0.0058077956 -0.016360259 -0.0035078384 0.008573385 0.0855822 0.011334037 -0.0031563577 -0.008251176 0.011807356 0.02489932 -0.024959914 -0.0119097615 0.039559998 -0.0033508227 -0.018736687 -0.00012305923 0.04397619 -0.007015345 -0.010774792 -0.012145728 0.0013056044 -0.010586107 -0.017922636 0.023311287 -0.0017143999 0.015598016 -0.008161372 -0.023680339 -0.014460773 -0.111897685 0.024484284 -0.023548042 0.030276928 0.01081506 0.012879151 0.00052996736 -0.0024245812 -0.010859153 0.0046075075 -0.007326488 -0.0007607451 -0.006460646 0.025584565 0.0066063446 -0.00771507 0.010398863 -0.043138873 -0.00062883203 0.035938006 0.0581303 -0.034553133 -0.0023287283 -0.06337976 -0.003614912 0.027815573 0.0054382407 -0.0019909625 0.023731261 -0.0308042 0.0062225214 -0.0023159748 0.00072097377 -0.0065492312 0.0066076317 0.0015811151 0.009739613 -0.020894278 0.004440299 -0.006414386 0.0063473037 0.0051759495 0.0133941 0.0065880786 0.0025827808 -0.010787924 0.0028604008 0.0050120926 -0.008320048 -0.0047937944 0.007165455 0.022565572 0.012220745 -0.027635215 -0.010291455 0.0028064204 -0.015936669 -0.011489625 0.0017890858 -5.141389e-05 0.028710324 -0.0010633635 0.0035019722 0.015360712 0.026854554 0.048026722 -0.051656134 0.0058775553 0.0029312083 0.018830042 -0.034026094 -0.015680103 -0.013872212 0.0060682753 0.006227446 0.0015546795 0.016043724 -0.0028311803 -0.018111218 -0.0060814777 -0.10388342 -0.00010398202 0.0056510055 -0.007962563 0.0039656907 -0.033953957 -0.030770076 0.011668116 0.009613912 -0.008412012 0.01780423 0.0125583075 0.017139021 -0.0038387482 -0.02608372 0.012400668 -0.00041496035 -0.03635065 -0.015341197 0.05311085 -0.0039468994 -0.031410474 0.0379002 -0.019903645 0.023655048 0.0026789645 0.006914438 -0.011003172 0.00049800344 0.010565618 0.009692786 -0.018218769 0.01404947 0.022297187
C 0.00055476767 -0.0024591023 -0.044419345 -0.027264463 -0.00957406 0.009321591 0.020189626 0.0025993872 0.020691559 0.000990146 -0.020536195 -0.025249789 0.013471135 0.0077306298 0.023003977 0.012428994 -0.024494274 0.008003952 0.03670434 0.043987125 0.0046323743 -0.0042776824 0.0007081839 -5.967362e-06 0.00028378813 0.016972687 0.014173237 -0.0023583309 0.057820775 0.009554743 0.0111814 0.011241541 -0.008545823 0.041558776 0.025064463 -0.008903058 0.0026297239 -0.013975257 -0.020258896 0.019097827 -0.0113819875 0.003293037 -0.003148777 -0.045697946 0.047840904 -0.014737347 0.0081782555 -0.04991759 0.009123548 -0.017808082 -0.0042718877 0.0005931582 -0.02720147 0.0155334165 -0.07860596 -0.015189604 0.00778154 -0.035534494 -0.021666316 -0.022994373 0.0050067715 0.00087110815 0.013502751 -0.0074298745 -0.026583068 0.042009037 -0.00084903016 -0.029199125 0.052034825 0.027903723 0.0032877596 0.040420014 0.022441639 0.014668736 -0.04594438 0.019920588 -0.00072610733 0.019649629 0.0011953583 0.0030704602 -0.017274186 -0.027190018 -0.009191021 -0.022353608 0.0045769666 0.02104882 -0.016256863 0.040169545 -0.021995964 -0.030201847 0.008171201 -0.006752875 -0.00018662443 -0.012881066 -0.010777794 -0.038582373 -0.010849183 0.029578919 0.015359507 -0.003742024 0.014170574 -0.027983006 -0.038059007 -0.021465752 -0.0008661047 0.027944954 0.040237207 -0.017528055 -0.006494264 -0.008444198 -0.013125488 -0.022875914 -0.0063245287 -0.023564193 -0.008991026 -0.016798453 -0.004690809 -0.009192962 0.038806442 0.004901245 -0.0062510837 0.017341949 -0.0012345031 -0.03593299 -0.000745799 0.024265649 0.029675981 0.006371623 0.011787188 -0.0056364266 -0.013138176 -0.03182024 0.0065934495 -0.014009666 -0.071649246 -0.0065412954 -0.041612346 0.00822746 0.015838562 0.014588706 0.008275603 -0.007062831 0.03135703 -0.011315271 0.020039003 0.008726437 -0.005130416 0.0037383616 0.026420072 -0.0153827 0.00020627088 0.032523155 -0.0056748623 0.014994127 -0.0075552086 0.010260465 -0.021299696 0.022614324 -0.01777132 0.008137217 0.005259547 -0.023057692 -0.020122737 0.009525914 -0.0047009396 -0.008209893 -0.0059700813 0.018826537 -0.018824575 0.015675686 -0.00764062 -0.0042849886 0.029704232 -0.008674995 0.010950103 -0.005264331 -0.05785147 0.0059744017 0.01705837 -0.0031644069 0.024506137 0.0040755677 0.008569687 0.005249532 -0.011494639 0.07538735 0.019515412 0.0011787178 -0.008333088 0.031772736 0.006748018 -0.029230423 -0.055428877 -0.0067007253 -0.014504637 0.0031553812 0.0145554915 -0.0054657506 -0.012383365 0.060335156 0.009963191 -0.039361473 -0.009551906 -0.0029242125 0.04125581 0.006182686 0.010531513 0.00036974403 0.007835237 0.03319303 -0.01326525 0.009108236 0.020659594 -0.031114653 -0.030146927 -0.016670244 -0.0010540378 -0.056818485 0.012148678 -0.05510572 0.015092894 -0.032138612 0.012210166 -0.011192184 -0.011411116 0.037061892 0.036623638 0.010679275 -0.012432292 0.002903349 -0.008025539 -0.044328447 0.025997711 -0.043026723 -0.0031297028 0.034193754 0.002502446 -0.011124546 0.00535648 -0.01128452 0.08077162 -0.019506255 0.026143666 -0.010614582 0.021694524 0.0075681494 0.022560282 -0.0054573473 0.036664553 -0.0017476127 0.03132969 -0.008372369 -0.018795056 -9.698639e-05 0.014105151 0.018841876
G -0.008572048 0.004457955 -0.00012684563 0.054568764 0.00048553685 -0.0011968308 -0.0066075516 0.043858297 -0.026730577 0.00041033013 -0.01623791 0.019955542 -0.00044879553 0.016381707 -0.009832381 0.00021277217 -0.009741986 -0.008926955 0.047226526 0.015925512 0.0023746882 -0.008019697 -0.046460126 -0.019509465 0.035009746 -0.021067474 0.009268559 0.01275408 -0.026199251 0.0034428537 -0.04379001 -0.0034183862 0.021762507 -0.040098976 0.026281666 -0.009009487 0.03421823 0.041592326 -0.010247607 0.0029121542 -0.007939722 -0.0056238594 0.016575545 -0.012973818 -0.030027378 0.002496823 2.2054648e-05 0.0033625732 0.008060921 0.00785625 -0.038090475 0.0136320805 -0.010230974 0.00918841 0.001189375 -0.057012793 -0.008109421 0.0073717893 -0.0036027604 0.03646859 -0.007896469 -0.02341615 -0.070811234 -0.012003302 0.010740444 -0.05831252 -0.03442018 0.035462625 -0.041895658 0.022519479 0.00629631 -0.00070643163 0.018082367 -0.0015605136 0.0080829775 -0.014682666 0.047373757 -0.015278274 -0.04783653 0.0071707885 0.043428782 -0.0012492482 0.022996856 0.0015378933 -0.040482193 -0.04057405 -0.016306298 0.0074707065 -0.017368695 0.0013291942 0.02041223 0.0059914635 -0.005944152 -0.026866825 -0.004143751 -0.005336862 0.013426713 -0.0062514693 0.007972596 -0.0018270207 -0.05359792 -0.021683168 -0.03195355 -0.05262702 -0.009040511 -0.0020573067 0.004288182 0.030309044 -0.0052476767 0.013853521 -0.0098219 -0.018856468 0.0036372647 0.007782429 -0.004269091 0.0040819487 0.018769488 0.001037488 0.038008228 -0.02220941 -0.029551996 -0.027504304 0.018638302 0.02729577 0.010345961 -0.010034884 -0.0019962746 0.011144309 0.0041750143 -0.0008033454 0.022248387 0.030792957 0.015355144 0.026126536 0.04394084 -0.027604526 0.0073500974 0.02021708 0.004155548 -0.026080256 -0.006114967 -0.014243991 -0.0014206318 0.016242027 0.014042254 0.009944848 0.027815051 -0.012540801 -0.018960847 0.032196254 0.010769042 0.005922843 -0.004912001 -0.06294549 -0.0076082973 0.017848063 0.011439892 0.0044871243 -0.026017936 0.007811135 -0.039076753 0.0006439981 0.019403381 0.0029389362 0.010951006 -2.5822344e-05 -0.009614504 -0.005268652 0.0033521545 -0.0058882246 0.007039506 -0.005018388 -0.047377907 0.02653061 -0.010764991 -0.023211684 -0.02447548 0.001028673 0.012276281 -0.025394205 -0.013752154 0.04753556 0.0014765492 -0.04136211 0.025878781 0.0007968698 0.029740952 -0.050646897 0.03051692 0.00407534 -0.002035065 0.009364554 -0.0022917667 0.029507603 0.016755221 -0.0076094526 0.039783526 -0.01629946 0.002163077 -0.000240178 0.06603071 -0.00063037366 0.035235144 0.0205224 -0.00083770853 0.032233696 0.015114274 0.011436328 0.0058082677 -0.01274062 0.02402413 -0.0010920626 -0.009366463 0.0059155007 -0.0070745484 0.016694928 -0.004668944 0.0069714417 0.044903368 0.0055519873 -0.0033520043 -0.005760672 0.025038712 0.08986154 0.0024152317 0.00012563933 -0.015386083 0.014336033 -0.002535317 -0.028412864 -0.0018193395 -0.018468898 -0.013481282 0.011604502 -0.12235419 0.0069861994 -0.003428839 -0.0031804047 0.039690055 -0.008104434 0.027908314 0.00056795846 -0.007067828 0.02505865 0.017912507 -0.040850382 0.021158919 -0.01045764 -0.009768907 0.00096739904 -0.015647745 -0.0146818785 -0.0019395447 -0.025240133 0.012104748 0.015768822
T -0.010742523 -0.006523202 -0.0020927538 -0.0015490353 -0.008375215 0.032355487 0.017765611 0.04127138 -0.01885283 0.012917036 -0.029247772 0.017070241 -0.009252178 0.017648667 0.033958707 -0.013755311 -0.0148209855 0.001984125 0.00621757 0.019027852 -0.031817164 -0.028048184 0.006975524 -0.014802038 0.013276852 -0.008324056 0.0052857376 -0.018360697 -0.010686335 -0.04047927 -0.023969235 0.015700731 0.016424201 0.05863381 -0.036658663 0.023722537 0.009056394 0.0022215112 -0.019460246 0.02469857 0.011249571 -0.039374605 0.014859561 0.00048680208 0.008628915 -0.0054660523 -0.099190205 0.0064838133 -0.0044259946 -0.015498522 -0.018882493 -0.09051903 -0.018007034 0.040276617 -0.0016729468 0.018038994 0.0075794873 -0.0074647777 -0.024699697 4.0220933e-05 0.015744621 -0.013824688 -0.007488159 0.07148762 -0.014100676 0.004705581 0.099973224 0.014472099 0.010817497 -0.012385558 -0.06081763 -0.0066777226 0.005861964 -0.01646284 -0.035264652 -0.029762194 0.0120034935 -0.0318244 0.0066892765 -0.0064073964 -0.022224447 -0.01623217 0.0034365256 -0.009337302 0.015998457 -0.0034323514 0.013079085 -0.01212616 -0.01795252 0.0020707245 -0.11183209 -0.030129185 -0.013353518 0.018406052 -0.0058511267 0.00026956975 0.0018417893 0.0124584455 0.012392266 -0.020141894 0.007873387 0.02417793 0.010342754 -0.02540876 0.029393096 -0.00018567141 -6.0686466e-06 -0.0053739734 -0.021787317 -0.04279726 -0.018284159 0.017899042 0.021239689 -0.01965448 0.01213373 0.048670612 -0.014829183 -0.01242934 -0.02122898 0.01588853 -0.020543406 -0.040248245 0.006898455 -0.026585257 -0.035429228 0.00075079245 0.024351513 0.025647637 0.016899187 0.007662432 -0.017610533 -0.018512407 -0.014878628 0.013787261 -0.0060953107 -0.01653312 0.0075152675 -0.0011257437 0.0015921772 0.002844853 0.012651992 0.016354287 0.021409525 -0.00077797705 0.0073463866 0.010859286 0.022381535 -0.03297699 0.017770857 0.00020179566 0.031021183 0.005710114 0.054973666 0.009945111 0.066098616 0.017195059 -0.025609866 -0.0031460489 -0.001544136 -0.00016607041 -0.0026321986 0.015070674 -0.00916592 -0.006893957 -0.02488821 0.0013385324 0.027415112 -0.0031255642 -0.04305907 0.023444144 0.02739857 -0.009140353 0.05367143 0.0005464021 0.032005236 0.009691759 -0.00026865976 0.024427984 -0.008172028 -0.017806122 0.008965705 -0.0016738387 0.023356324 -0.009114934 -0.0057733892 0.0005083059 -0.01218071 0.007641876 0.015427641 0.01325964 0.023056468 -0.007932323 0.00016929267 -0.009387013 0.003175464 0.009427813 -0.009134747 0.030594075 -0.018034969 0.023427008 -0.020548245 0.0073786154 -0.011761104 -0.053789105 0.00881357 -0.010867159 0.0031296653 -0.004104437 -0.00619773 0.004060103 0.019731704 0.027467119 0.0034659498 -0.010712059 -0.008663334 -0.0052825 -0.040596478 -0.0030476595 -0.013331868 -0.017689623 -0.0039271903 0.0030197448 0.025587121 -0.0082212 -0.046273746 0.0013111929 0.004707592 0.07978428 0.01810357 0.013359193 -0.029216008 0.012196454 0.005241481 0.010726471 0.03789338 0.0109935785 0.0028515728 -0.026897602 -0.010967466 -0.016701788 -0.0110749295 -0.016942604 -0.002436485 -0.011493571 -0.029039491 -0.003107992 -0.018271517 0.010833999 -0.0016526426 0.020895189 0.025587851 0.014377832 -0.037391365 -0.026357042 0.01777482 0.025928056
N 0.03176123 -0.028357675 0.043630857 -0.030203944 -0.08353385 0.009165906 -0.09391531 -0.017113833 0.02786161 0.0062781535 0.7930742 -0.037708037 0.012182647 -0.03595123 -0.008155699 -0.057869405 0.062273756 0.10115601 0.0016599692 -0.086357154 0.061763424 0.046375822 0.04542889 0.17426407 -0.053181246 0.029547207 0.049643755 -0.037570864 0.12110205 0.02434519 0.0231889 -0.036762573 -0.08484467 -0.0018832937 -0.15934347 0.02966767 -0.04957269 -0.0019943872 0.03910634 -0.11845009 -0.02262189 0.010513574 -0.017684363 0.03151186 -0.010038754 0.22616343 0.024332188 0.047602054 0.023116125 0.07645321 0.03072077 0.04173806 0.07474965 -0.016837507 0.03189836 0.026667675 0.058517274 0.03158839 0.021846972 -0.038083564 -0.11851078 0.06823453 0.026334587 -0.11268193 0.019626897 -0.043725185 -0.018333051 -0.0057988525 -0.060714655 -0.034074146 0.027930561 0.009019161 -0.042153697 -0.08049974 0.0012028657 0.027309053 -0.039699133 0.0095136985 0.043139156 0.068600066 -0.07974712 0.077026546 -0.051664516 0.018135538 0.049581233 0.047293704 -0.04372902 -0.0145041505 0.05599737 -0.037066285 0.036561754 0.12352609 -0.00978064 0.043448992 -0.030031642 0.055288915 -0.2734557 -0.17628455 -0.0640806 0.026526444 0.07453661 0.03658786 0.022258928 0.01542069 -0.062530115 -0.24757747 0.01875537 0.15488027 0.07433438 -0.09762499 0.01829213 0.023412019 -0.06338687 0.091056146 0.029183803 -0.014720747 -0.0076729534 -0.036586944 -0.02107388 -0.01040696 0.041493017 0.049068633 -0.35593936 0.027767789 0.06067406 -0.035669457 -0.020771882 -0.052004147 -0.036240827 -0.06636354 0.063789494 0.20174798 0.079116374 -0.062152743 0.030290822 0.024540223 -0.037483405 -0.00807139 -0.04647533 0.09925094 0.048763778 0.015688496 -0.0011006846 -0.08672226 -0.040744144 -0.10921361 -0.02795527 0.023587752 -0.037158143 -0.01996533 -0.04099046 -0.21615984 -0.01791387 0.024414327 -0.054918814 -0.04381655 0.014307355 -0.041375857 0.027848646 0.044140536 0.07345953 -0.07689302 -0.116740756 0.052422497 0.04715731 0.0051426874 -0.0057226242 -0.0429929 0.024269126 -0.031995483 -0.02066442 0.055237696 -0.0072045 -0.06389068 -0.022831254 0.07033054 0.038425267 -0.30434382 -0.044714313 0.020488143 -0.16099317 -0.018588403 -0.12557024 0.039932482 -0.051175967 -0.008694216 -0.01647091 -0.0032927932 -0.083085865 -0.03817002 -0.017731542 0.099553965 0.010508997 -0.05456815 -0.0808246 0.12728299 -0.035890564 -0.040262852 0.10587549 -0.054426048 -0.051351104 -0.01332357 -0.009843534 0.016872155 -0.10135048 -0.021374023 -0.028186757 -0.02421478 0.04710007 -0.061470058 -0.060276084 -0.06707865 0.04263507 0.021737829 0.04108389 -0.0028992896 0.057565324 0.012021592 -0.01758873 0.052068785 0.013229043 0.025759367 -0.04356113 -0.0076396354 0.01124222 -0.050581884 -0.07152195 -0.027003221 0.026497714 -0.033592694 0.036297876 0.026427045 -0.009208469 -0.065732986 -0.002928199 -0.047739003 0.045049433 0.09983033 -0.037673954 0.03133764 0.0011436988 -0.040606573 0.019855972 0.054046392 -0.036791965 0.036983013 -0.01023108 0.012738633 -0.040808983 -0.0278148 -0.11088017 -0.0868363 0.057381995 -0.006404538 -0.0532036 -0.080022916
